-0.74084253096953,0.95006110332906,0.38797680567950,0.26522731408477,0.52614645566791,-0.26798689644784,-0.61332858772948,-0.62939301691949,-0.36548967054114,0.42130131367594,0.98647440783679,0.73145080730319,-0.41591115947813,0.80937218433246,0.88743318663910,-0.24635648680851,0.92374071944505,-0.74622029066086,-0.54911895655096,-0.03938380768523,0.25300912139937,0.28419987345114,0.33468952216208,0.18422339018434,0.86354753468186,-0.57191798370332,-0.47403831034899,0.54969567479566,0.38144702743739,-0.75932930689305,0.15416217176244,-0.17000291915610,0.52895794901997,0.43881113780662,-0.02154635172337,0.55517031857744,0.20285554509610,-0.82178624253720,-0.22613241663203,0.02285677101463,0.32437395490706,-0.28040140122175,
0.24576418381184,-0.21873050136492,0.30042660748586,0.06562799634412,-0.13876376533881,-0.79566328134388,-0.26965984562412,0.04099833499640,-0.82740479707718,0.51834510406479,0.32618629746139,0.94289595168084,-0.06921353237703,-0.97377902781591,0.50062309810892,-0.12355552800000,-0.50822364352643,-0.09671663679183,0.18322806945071,-0.13693267572671,-0.34493490075693,-0.74209744995460,0.64575603464618,0.87835446046665,0.99088325677440,0.02672244654968,-0.63477121479809,-0.24578882893547,0.27408413356170,-0.11713545955718,0.05276617920026,-0.23281659046188,-0.74414451187477,-0.34241803037003,0.97699034120888,0.70061897858977,0.01453079981729,0.08501257421449,-0.62267538532615,-0.41725788218901,
-0.15665953337857,-1.14015547103750,-0.01540531042153,-0.92350662845969,0.08062530417287,0.63619696809452,1.03383958152427,-0.72727284491480,-0.47406914702532,1.04050406272973,-0.73621020525047,0.19871933299773,

-0.65881474642083,0.95006110332906,0.38797680567950,0.54242866300046,0.52614645566791,-0.24161443486810,-0.61332858772948,-0.62939301691949,-0.45531902555376,0.86579542467371,-0.99020268768072,0.73145080730319,0.54868313949555,0.02045937115327,0.51073156530038,-0.24635648680851,-0.81570296594873,-0.12515338230878,-0.54911895655096,-0.03938380768523,0.25300912139937,0.35365322744474,-0.95802814885974,-0.35186282778159,0.05868382100016,0.36838820902631,0.55391482822597,0.64133697049692,0.38144702743739,-0.72876458801329,0.80157595826313,-0.17000291915610,-0.42380685685202,0.43881113780662,0.71959270676598,0.33027287898585,0.20285554509610,-0.82178624253720,-0.22613241663203,0.02285677101463,0.32437395490706,-0.28040140122175,
0.24576418381184,-0.21873050136492,0.30042660748586,0.06562799634412,-0.13876376533881,-0.15805141348392,-0.26965984562412,-0.08497964125127,-0.82740479707718,0.51834510406479,-0.95035684946924,0.94289595168084,-0.06921353237703,-0.97377902781591,0.50062309810892,-0.12355552800000,-0.50822364352643,-0.99343090504408,0.18322806945071,-0.13693267572671,0.71287365723401,-0.74209744995460,0.64575603464618,0.87835446046665,0.99088325677440,0.02672244654968,-0.63477121479809,-0.02451832685620,0.27408413356170,-0.11713545955718,0.96140070259571,-0.23281659046188,-0.07031891308725,-0.34241803037003,0.97699034120888,-0.39796837978065,0.01453079981729,0.08501257421449,-0.62267538532615,-0.41725788218901,
0.99981620328534,-1.14015547103750,-0.01540531042153,-0.92350662845969,0.32632833442533,0.63619696809452,-0.73346074437412,-0.72727284491480,-0.47406914702532,1.04050406272973,-1.20051479910096,0.19871933299773,

-0.74084253096953,0.95006110332906,0.38797680567950,0.26522731408477,0.52614645566791,-0.26798689644784,-0.61332858772948,-0.62939301691949,-0.36548967054114,0.42130131367594,0.98647440783679,0.73145080730319,-0.41591115947813,-0.99397800676525,0.88743318663910,-0.24635648680851,0.92374071944505,-0.74622029066086,-0.54911895655096,-0.03938380768523,0.25300912139937,0.28419987345114,0.33468952216208,0.18422339018434,0.86354753468186,-0.57191798370332,-0.47403831034899,0.54969567479566,0.38144702743739,-0.75932930689305,0.15416217176244,-0.17000291915610,0.52895794901997,0.43881113780662,-0.02154635172337,0.55517031857744,0.20285554509610,-0.82178624253720,-0.22613241663203,0.02285677101463,0.32437395490706,-0.28040140122175,
0.24576418381184,-0.21873050136492,0.30042660748586,0.06562799634412,-0.13876376533881,-0.79566328134388,-0.26965984562412,0.04099833499640,-0.82740479707718,0.51834510406479,0.32618629746139,0.94289595168084,-0.06921353237703,-0.97377902781591,0.50062309810892,-0.12355552800000,-0.50822364352643,-0.09671663679183,0.18322806945071,-0.13693267572671,-0.34493490075693,-0.74209744995460,0.64575603464618,0.87835446046665,0.99088325677440,0.02672244654968,-0.63477121479809,-0.24578882893547,0.27408413356170,-0.11713545955718,0.05276617920026,-0.23281659046188,-0.74414451187477,-0.34241803037003,0.97699034120888,0.70061897858977,0.01453079981729,0.08501257421449,-0.62267538532615,-0.41725788218901,
-0.15665953337857,-1.14015547103750,-0.01540531042153,-0.92350662845969,0.08062530417287,0.63619696809452,1.03383958152427,-0.72727284491480,-0.47406914702532,1.04050406272973,-0.73621020525047,0.19871933299773,

-0.74084253096953,0.95006110332906,0.38797680567950,-0.24110373575240,-0.20945120276883,-0.26798689644784,-0.64931019721553,-0.62939301691949,-0.36548967054114,0.42130131367594,0.98647440783679,0.73145080730319,-0.41591115947813,-0.99397800676525,0.88743318663910,-0.24635648680851,0.86663362709805,0.65335915796459,-0.54911895655096,-0.03938380768523,0.25300912139937,0.28419987345114,0.33468952216208,0.18422339018434,0.86354753468186,-0.18920497922227,-0.47403831034899,0.54969567479566,0.38144702743739,-0.75932930689305,0.15416217176244,-0.17000291915610,0.52895794901997,-0.60722950566560,-0.02154635172337,0.55517031857744,0.20285554509610,-0.82178624253720,-0.22613241663203,0.02285677101463,0.32437395490706,-0.28040140122175,
0.33262588363141,-0.21873050136492,0.30042660748586,0.06562799634412,-0.13876376533881,-0.54550855234265,0.39164364477620,0.04099833499640,-0.45037247007713,0.51834510406479,0.32618629746139,0.94289595168084,-0.06921353237703,-0.97377902781591,0.50062309810892,-0.63416817970574,-0.50822364352643,-0.09671663679183,-0.72996648633853,-0.13693267572671,0.27305047307163,-0.74209744995460,0.64575603464618,0.59729589475319,0.99088325677440,0.02672244654968,-0.63477121479809,-0.24578882893547,0.38386973319575,-0.11713545955718,0.05276617920026,-0.19816716713831,-0.74414451187477,-0.34241803037003,0.97699034120888,0.70061897858977,0.60301601095125,-0.88984672538936,-0.62267538532615,-0.41725788218901,
-0.15665953337857,-1.14015547103750,-0.01540531042153,-0.92350662845969,-0.57748966314615,0.63619696809452,1.03383958152427,-0.72727284491480,-0.47406914702532,1.04050406272973,-0.73621020525047,0.19871933299773,

-0.74084253096953,0.95006110332906,0.88289101328701,-0.93909491831437,0.52614645566791,-0.26798689644784,-0.61332858772948,-0.62939301691949,-0.36548967054114,0.42130131367594,0.98647440783679,0.73145080730319,-0.41591115947813,-0.99301829654723,-0.15441538114101,-0.24635648680851,0.92374071944505,0.03737999359146,-0.54911895655096,-0.10800541052595,-0.48788865096867,0.28419987345114,0.33468952216208,0.18422339018434,0.86354753468186,-0.57191798370332,-0.47403831034899,0.54969567479566,0.38144702743739,-0.75932930689305,0.15416217176244,-0.17000291915610,0.52895794901997,0.43881113780662,-0.51045614574105,0.55517031857744,0.20285554509610,-0.82178624253720,0.96959229512140,0.02285677101463,0.32437395490706,-0.95326158776879,
0.24576418381184,-0.21873050136492,-0.04751135827973,-0.33354615792632,-0.13876376533881,-0.79566328134388,-0.89564792346209,0.60418301494792,-0.82740479707718,0.56329140579328,0.32618629746139,0.94289595168084,-0.06921353237703,-0.97377902781591,-0.82498137699440,-0.12355552800000,-0.50822364352643,-0.88460249686614,0.65402225498110,-0.13693267572671,-0.34493490075693,-0.74209744995460,0.31041884655133,0.87835446046665,-0.95911818137392,0.02672244654968,-0.63477121479809,-0.64424389461055,0.27408413356170,-0.11713545955718,0.05276617920026,0.14227083511651,-0.74414451187477,-0.34241803037003,0.97699034120888,0.70061897858977,0.38581235706806,0.08501257421449,-0.62267538532615,-0.41725788218901,
-0.15665953337857,-1.14015547103750,-0.01540531042153,-0.92350662845969,0.08062530417287,0.63619696809452,1.03383958152427,-0.72727284491480,-0.47406914702532,1.04050406272973,-0.73621020525047,0.19871933299773,

-0.74084253096953,0.95006110332906,0.38797680567950,0.26522731408477,0.52614645566791,-0.26798689644784,-0.61332858772948,-0.62939301691949,-0.36548967054114,0.42130131367594,0.98647440783679,0.73145080730319,-0.41591115947813,-0.99397800676525,0.88743318663910,-0.24635648680851,0.92374071944505,-0.74622029066086,-0.54911895655096,-0.03938380768523,0.25300912139937,0.28419987345114,0.33468952216208,0.18422339018434,0.86354753468186,-0.57191798370332,-0.47403831034899,0.54969567479566,0.38144702743739,-0.75932930689305,0.15416217176244,-0.17000291915610,0.52895794901997,0.43881113780662,-0.02154635172337,0.55517031857744,0.20285554509610,-0.82178624253720,-0.22613241663203,0.02285677101463,0.32437395490706,-0.28040140122175,
0.24576418381184,-0.21873050136492,0.30042660748586,0.06562799634412,-0.13876376533881,-0.79566328134388,-0.26965984562412,0.04099833499640,-0.82740479707718,0.51834510406479,0.32618629746139,0.94289595168084,-0.06921353237703,-0.97377902781591,0.50062309810892,-0.12355552800000,-0.50822364352643,-0.09671663679183,0.18322806945071,-0.13693267572671,-0.34493490075693,-0.74209744995460,0.64575603464618,0.87835446046665,0.99088325677440,0.02672244654968,-0.63477121479809,-0.24578882893547,0.27408413356170,-0.11713545955718,0.05276617920026,-0.23281659046188,-0.74414451187477,-0.34241803037003,0.97699034120888,0.70061897858977,0.01453079981729,0.08501257421449,-0.62267538532615,-0.41725788218901,
-0.15665953337857,-1.14015547103750,-0.01540531042153,-0.92350662845969,0.08062530417287,0.63619696809452,1.03383958152427,-0.72727284491480,-0.47406914702532,1.04050406272973,-0.73621020525047,0.19871933299773,

-0.74084253096953,0.95006110332906,0.45436965767294,0.26522731408477,0.52614645566791,-0.26798689644784,-0.61332858772948,-0.62939301691949,-0.36548967054114,0.86173137743026,0.98647440783679,0.73145080730319,-0.41591115947813,-0.99397800676525,0.88743318663910,0.11797673674300,0.92374071944505,-0.32704774988815,-0.54911895655096,-0.03938380768523,0.25300912139937,0.28419987345114,0.33468952216208,0.18422339018434,-0.40551414201036,-0.57191798370332,-0.47403831034899,0.54969567479566,0.38144702743739,-0.75932930689305,0.95425341092050,-0.17000291915610,0.52895794901997,0.43881113780662,-0.02154635172337,0.55517031857744,0.20285554509610,0.98052742332220,-0.22613241663203,-0.42553644254804,-0.03587871557102,-0.72923784423620,
0.82828881824389,0.93071793764830,0.30042660748586,-0.32362492755055,-0.49543954664841,0.94253510562703,-0.26965984562412,-0.63669758150354,0.39443130698055,-0.87608161522076,0.32618629746139,0.94289595168084,-0.06921353237703,-0.72815282922238,-0.73878881009296,0.38238943880424,-0.49032631609589,-0.05200727237388,0.18322806945071,-0.13693267572671,-0.34493490075693,0.98000747896731,-0.66704160207883,-0.94881195388734,-0.61701621161774,0.02672244654968,-0.63477121479809,0.37101549888030,0.03106019645929,0.35651254048571,0.05276617920026,-0.01067656744272,0.93137429980561,-0.34241803037003,0.97699034120888,0.56396474828944,0.17140835151076,0.08501257421449,-0.62267538532615,-0.41725788218901,
-0.15665953337857,-0.24356953869588,-0.44101068900312,-0.92350662845969,0.08062530417287,-0.55811619697619,1.03383958152427,-0.72727284491480,0.09334030620491,1.04050406272973,1.01077228947604,0.19871933299773,

-0.74084253096953,0.95006110332906,0.38797680567950,0.25314773246646,0.52614645566791,0.41932954080403,-0.66446047974750,-0.62939301691949,-0.36548967054114,0.42130131367594,-0.35647924337536,0.73145080730319,-0.41591115947813,0.80937218433246,0.88743318663910,-0.24635648680851,0.92374071944505,-0.12309409584850,-0.91307856841013,-0.03938380768523,-0.01563923945650,0.24527819780633,0.33468952216208,0.18422339018434,-0.10225198231637,-0.57191798370332,-0.47403831034899,0.54969567479566,0.18632535124198,-0.75932930689305,0.15416217176244,-0.17000291915610,0.52895794901997,0.00348374899477,0.75011129630730,0.55517031857744,0.20285554509610,-0.82178624253720,-0.22613241663203,0.02285677101463,0.32437395490706,0.80431768810377,
0.24576418381184,-0.21873050136492,0.30042660748586,0.06562799634412,-0.13876376533881,-0.79566328134388,-0.26965984562412,0.04099833499640,-0.82740479707718,0.51834510406479,-0.63204835914075,0.81382691627368,-0.08755950536579,-0.97377902781591,-0.39540707226843,-0.12355552800000,-0.50822364352643,-0.09671663679183,0.18322806945071,-0.13693267572671,-0.34493490075693,-0.74209744995460,0.51439897716045,-0.87419178849086,-0.22668057028204,0.02672244654968,0.75408155145124,-0.69717158749700,0.27408413356170,-0.16504349932075,0.95514529198408,-0.23281659046188,-0.74414451187477,-0.34241803037003,0.97699034120888,0.70061897858977,0.01453079981729,-0.22737431712449,-0.62267538532615,-0.04850352741778,
-0.15665953337857,0.25492066131412,-0.01540531042153,-0.92350662845969,0.08062530417287,0.63619696809452,1.03383958152427,-0.72727284491480,-0.47406914702532,0.34842980391009,-0.30493639176507,0.19871933299773,

-0.74084253096953,0.95006110332906,0.38797680567950,-0.55272310739383,0.75400341302156,-0.26798689644784,-0.61332858772948,-0.62939301691949,0.70724584488198,0.42130131367594,-0.44135562470183,0.73145080730319,-0.41591115947813,0.18358214385808,0.88743318663910,-0.24635648680851,0.92374071944505,-0.74622029066086,-0.54911895655096,-0.03938380768523,0.82787787914276,0.28419987345114,0.02698469022289,0.18422339018434,0.86354753468186,-0.57191798370332,-0.47403831034899,0.50262677948922,0.38144702743739,-0.75932930689305,0.15416217176244,-0.17000291915610,0.52895794901997,0.43881113780662,-0.02154635172337,0.55517031857744,0.19816175522283,-0.82178624253720,-0.82574404263869,-0.45695154834539,0.32437395490706,-0.66416525375098,
-0.10769144119695,-0.21873050136492,-0.86694775940850,-0.54562969971448,-0.13876376533881,0.81223504384980,-0.26965984562412,-0.34277657000348,-0.82740479707718,0.51834510406479,-0.67528839735314,-0.29916280321777,-0.15644816542044,0.42334299348295,0.50062309810892,-0.12355552800000,0.48740606382489,-0.09671663679183,0.18322806945071,-0.13693267572671,-0.34493490075693,-0.74209744995460,0.91670016990975,0.87835446046665,0.99088325677440,-0.15655723912641,-0.63477121479809,-0.24578882893547,-0.66125025600195,-0.11713545955718,0.05276617920026,0.55968668218702,-0.25789028452709,-0.34241803037003,-0.95507390378043,0.70061897858977,-0.82476929482073,0.08501257421449,-0.62267538532615,-0.41725788218901,
0.83521616005880,-1.14015547103750,-0.01540531042153,0.54249634447222,0.08062530417287,0.63619696809452,0.74047432158365,-0.72727284491480,-0.47406914702532,1.21394369153560,1.25528059984344,-0.85689961010072,

-0.74084253096953,0.95006110332906,0.38797680567950,0.26522731408477,0.52614645566791,-0.26798689644784,-0.61332858772948,-0.62939301691949,-0.36548967054114,0.42130131367594,0.98647440783679,0.73145080730319,-0.41591115947813,-0.99397800676525,0.88743318663910,-0.24635648680851,0.92374071944505,-0.74622029066086,-0.54911895655096,-0.03938380768523,0.25300912139937,0.28419987345114,0.33468952216208,0.18422339018434,0.86354753468186,-0.57191798370332,-0.47403831034899,0.54969567479566,0.38144702743739,-0.75932930689305,0.15416217176244,-0.17000291915610,0.52895794901997,0.43881113780662,-0.02154635172337,0.55517031857744,0.20285554509610,-0.82178624253720,-0.22613241663203,0.02285677101463,0.32437395490706,-0.28040140122175,
0.24576418381184,-0.21873050136492,0.30042660748586,0.06562799634412,-0.13876376533881,-0.79566328134388,-0.26965984562412,0.04099833499640,-0.82740479707718,0.51834510406479,0.32618629746139,0.94289595168084,-0.06921353237703,-0.97377902781591,0.50062309810892,-0.12355552800000,-0.50822364352643,-0.09671663679183,0.18322806945071,-0.13693267572671,-0.34493490075693,-0.74209744995460,0.64575603464618,0.87835446046665,0.99088325677440,0.02672244654968,-0.63477121479809,-0.24578882893547,0.27408413356170,-0.11713545955718,0.05276617920026,-0.23281659046188,-0.74414451187477,-0.34241803037003,0.97699034120888,0.70061897858977,0.01453079981729,0.08501257421449,-0.62267538532615,-0.41725788218901,
-0.15665953337857,-1.14015547103750,-0.01540531042153,-0.92350662845969,0.08062530417287,0.63619696809452,1.03383958152427,-0.72727284491480,-0.47406914702532,1.04050406272973,-0.73621020525047,0.19871933299773,

0.02813195809722,-0.05234742397442,-0.96502823662013,0.76518330210820,-0.36282845586538,0.18547838414088,-0.61332858772948,0.84390154387802,-0.36548967054114,0.42130131367594,0.98647440783679,0.73145080730319,0.81612788559869,-0.91202119365335,0.88743318663910,0.94805863359943,0.92374071944505,-0.80722849490121,-0.54911895655096,-0.03938380768523,0.25300912139937,0.28419987345114,0.33468952216208,0.18422339018434,0.86354753468186,-0.57191798370332,-0.47403831034899,0.59953319933265,0.56336486060172,-0.75932930689305,0.15416217176244,-0.17000291915610,0.52895794901997,0.43881113780662,0.10426277015358,0.48914636112750,0.20285554509610,0.46838216483593,-0.22613241663203,0.02285677101463,0.36784319346771,-0.28040140122175,
0.24576418381184,-0.21873050136492,0.30042660748586,0.57649273797870,-0.13876376533881,0.13188304333016,-0.26965984562412,0.04099833499640,-0.65359141025692,0.51834510406479,0.26468214159831,0.94289595168084,-0.06921353237703,-0.97377902781591,0.50062309810892,-0.96560443146154,0.42686773836613,-0.09671663679183,0.18322806945071,-0.43911667866632,-0.34493490075693,-0.74209744995460,0.64575603464618,0.87835446046665,0.99088325677440,0.02672244654968,-0.63477121479809,-0.24578882893547,0.27408413356170,-0.11713545955718,0.05276617920026,-0.23281659046188,-0.74414451187477,-0.34241803037003,0.97699034120888,-0.16429611621425,0.01453079981729,0.08501257421449,-0.62267538532615,0.58265996119007,
-1.27574951373430,-1.14015547103750,-0.01540531042153,-0.92350662845969,-0.20523457580779,0.63619696809452,1.03383958152427,-0.72727284491480,-0.76638276208225,1.04050406272973,-0.73621020525047,0.19871933299773,

-0.74084253096953,0.95006110332906,-0.63671663543209,0.69444297254086,0.52614645566791,-0.56793100573123,-0.61332858772948,-0.62939301691949,-0.36548967054114,0.42130131367594,0.98647440783679,0.73145080730319,-0.41591115947813,-0.99397800676525,0.88743318663910,-0.24635648680851,-0.71343338070437,0.42260591313243,-0.54911895655096,-0.03938380768523,0.25300912139937,0.28419987345114,0.33468952216208,-0.69576959824190,0.64607006125152,-0.57191798370332,-0.47403831034899,0.54969567479566,0.38144702743739,-0.75932930689305,0.15416217176244,-0.17000291915610,0.52895794901997,0.88281504344195,-0.02154635172337,0.55517031857744,-0.61982703953981,-0.82178624253720,-0.22613241663203,0.02285677101463,0.32437395490706,-0.28040140122175,
0.24576418381184,-0.21873050136492,0.74584963638335,0.06562799634412,0.98069163132459,-0.79566328134388,-0.26965984562412,0.04099833499640,-0.82740479707718,0.51834510406479,0.51225488074124,0.94289595168084,-0.06921353237703,0.32891739113256,0.50062309810892,-0.12355552800000,-0.50822364352643,-0.63246293924749,0.18322806945071,-0.29334525763988,0.70640072692186,-0.74209744995460,0.64575603464618,0.21129467850551,0.99088325677440,0.31071636080742,-0.63477121479809,-0.24578882893547,0.27408413356170,0.17677711043507,0.05276617920026,-0.23281659046188,-0.74414451187477,-0.34241803037003,0.97699034120888,0.70061897858977,0.01453079981729,0.08501257421449,0.18820148566738,0.84129240922630,
-1.22691813776510,-1.13985176612284,-0.01540531042153,0.97042128094660,0.08062530417287,0.63619696809452,0.90278330156414,-0.72727284491480,-0.47406914702532,0.14012272770334,1.03099317324599,0.97470156879660,

-0.74084253096953,0.95006110332906,0.38797680567950,0.26522731408477,0.52614645566791,-0.26798689644784,-0.61332858772948,-0.62939301691949,-0.36548967054114,0.42130131367594,0.98647440783679,0.73145080730319,-0.41591115947813,-0.99397800676525,0.88743318663910,-0.24635648680851,0.92374071944505,-0.74622029066086,-0.54911895655096,-0.03938380768523,0.25300912139937,0.28419987345114,0.33468952216208,0.18422339018434,0.86354753468186,-0.57191798370332,-0.47403831034899,0.54969567479566,0.38144702743739,-0.75932930689305,0.15416217176244,-0.17000291915610,0.52895794901997,0.43881113780662,-0.02154635172337,0.55517031857744,0.20285554509610,-0.82178624253720,-0.22613241663203,0.02285677101463,0.32437395490706,-0.28040140122175,
0.24576418381184,-0.21873050136492,0.30042660748586,0.06562799634412,-0.13876376533881,-0.79566328134388,-0.26965984562412,0.04099833499640,-0.82740479707718,0.51834510406479,0.32618629746139,0.94289595168084,-0.06921353237703,-0.97377902781591,0.50062309810892,-0.12355552800000,-0.50822364352643,-0.09671663679183,0.18322806945071,-0.13693267572671,-0.34493490075693,-0.74209744995460,0.64575603464618,0.87835446046665,0.99088325677440,0.02672244654968,-0.63477121479809,-0.24578882893547,0.27408413356170,-0.11713545955718,0.05276617920026,-0.23281659046188,-0.74414451187477,-0.34241803037003,0.97699034120888,0.70061897858977,0.01453079981729,0.08501257421449,-0.62267538532615,-0.41725788218901,
-0.15665953337857,-1.14015547103750,-0.01540531042153,-0.92350662845969,0.08062530417287,0.63619696809452,1.03383958152427,-0.72727284491480,-0.47406914702532,1.04050406272973,-0.73621020525047,0.19871933299773,

-0.74084253096953,-0.56230152584612,0.38797680567950,0.26522731408477,0.12742399470881,-0.26798689644784,0.19750408409163,0.02595618506894,-0.27023782953620,0.42130131367594,0.98647440783679,0.73145080730319,-0.41591115947813,-0.07090896135196,0.88743318663910,-0.24635648680851,0.73560768878087,-0.74622029066086,-0.54911895655096,-0.76228929217905,0.25300912139937,0.28419987345114,0.33468952216208,0.62912149401382,0.86354753468186,-0.57191798370332,0.04421343374997,0.54969567479566,0.14930936926976,-0.75932930689305,-0.95631488552317,-0.17000291915610,0.52895794901997,-0.43785443715751,-0.84652961278334,0.55517031857744,0.37539476808161,-0.82178624253720,-0.88060429971665,0.02285677101463,0.23432212229818,-0.28040140122175,
0.24576418381184,-0.21873050136492,-0.88176018465310,0.06562799634412,0.87988881394267,-0.98952954635024,-0.26965984562412,0.04099833499640,-0.82740479707718,0.51834510406479,0.32618629746139,0.91236129915342,-0.19960392266512,-0.97377902781591,-0.85587845649570,-0.12355552800000,-0.80952115682885,-0.09671663679183,0.18322806945071,-0.13693267572671,-0.34493490075693,-0.51047276845202,-0.02101702615619,0.87835446046665,0.22056154441088,0.02672244654968,-0.63477121479809,-0.24578882893547,0.27408413356170,0.92324505001307,0.79656179435551,-0.23281659046188,-0.74414451187477,-0.34241803037003,0.97699034120888,-0.85134395305067,0.01453079981729,0.97900122124702,-0.62267538532615,-0.46583457570523,
1.17605508238762,-1.14015547103750,0.41688634347802,-0.92350662845969,-0.59257284614691,0.63619696809452,1.03383958152427,-0.72727284491480,0.18012062295665,-0.20659313686307,-0.73621020525047,0.19871933299773,

-0.74084253096953,0.95006110332906,0.38797680567950,0.26522731408477,0.52614645566791,-0.26798689644784,-0.61332858772948,-0.62939301691949,-0.36548967054114,0.42130131367594,0.98647440783679,0.73145080730319,-0.41591115947813,-0.99397800676525,0.88743318663910,-0.24635648680851,0.92374071944505,-0.74622029066086,-0.54911895655096,-0.03938380768523,0.25300912139937,0.28419987345114,0.33468952216208,0.18422339018434,0.86354753468186,-0.57191798370332,-0.47403831034899,0.54969567479566,0.38144702743739,-0.75932930689305,0.15416217176244,-0.17000291915610,0.52895794901997,0.43881113780662,-0.02154635172337,0.55517031857744,0.20285554509610,-0.82178624253720,-0.22613241663203,0.02285677101463,0.32437395490706,-0.28040140122175,
0.24576418381184,-0.21873050136492,0.30042660748586,0.06562799634412,-0.13876376533881,-0.79566328134388,-0.26965984562412,0.04099833499640,-0.82740479707718,0.51834510406479,0.32618629746139,0.94289595168084,-0.06921353237703,-0.97377902781591,0.50062309810892,-0.12355552800000,-0.50822364352643,-0.09671663679183,0.18322806945071,-0.13693267572671,-0.34493490075693,-0.74209744995460,0.64575603464618,0.87835446046665,0.99088325677440,0.02672244654968,-0.63477121479809,-0.24578882893547,0.27408413356170,-0.11713545955718,0.05276617920026,-0.23281659046188,-0.74414451187477,-0.34241803037003,0.97699034120888,0.70061897858977,0.01453079981729,0.08501257421449,-0.62267538532615,-0.41725788218901,
-0.15665953337857,-1.14015547103750,-0.01540531042153,-0.92350662845969,0.08062530417287,0.63619696809452,1.03383958152427,-0.72727284491480,-0.47406914702532,1.04050406272973,-0.73621020525047,0.19871933299773,

