-0.22165079228580,-0.23957705916837,-0.22852993709967,-0.56865790719166,0.63412376632914,-0.59711016854271,-0.61332858772948,-0.37527602817863,-0.92556597851217,0.73130004294217,0.62588751595467,-0.49633106775582,-0.41591115947813,-0.99397800676525,0.20281392848119,0.76088203722611,0.92374071944505,0.80934156430885,-0.50562681956217,-0.03938380768523,0.25300912139937,0.28419987345114,0.85904906457290,0.18422339018434,0.48982315417379,0.31890464853495,0.76369128143415,0.03301616944373,-0.85820298222825,0.66007174598053,-0.74043450690806,-0.17000291915610,-0.10672061145306,0.43881113780662,-0.02154635172337,-0.73053681198508,0.20285554509610,0.30769919697195,0.35836276598275,-0.66552762407809,0.32437395490706,-0.28040140122175,
-0.96136206341907,0.44266627402976,-0.50611469848081,0.06562799634412,-0.67909981263801,0.31533676665276,-0.09869890986010,0.04099833499640,0.56283970829099,0.82725531375036,-0.90558259235695,-0.29127094568685,-0.06921353237703,-0.53201409010217,-0.48966232640669,-0.12355552800000,-0.50822364352643,-0.09671663679183,0.37524390406907,-0.13693267572671,0.33228284539655,-0.74209744995460,0.64575603464618,0.72807249007747,-0.69733294146135,0.21881424356252,0.85714208800346,0.56909551564604,0.27408413356170,-0.11713545955718,0.05276617920026,-0.23281659046188,0.79584932094440,0.47826541308314,0.88347505219281,0.70061897858977,0.74061208218336,-0.74422074481845,-0.62267538532615,0.04806763585657,
-0.15665953337857,0.18188052223399,0.39852285023417,-0.92350662845969,-1.13770019287895,0.80552925538697,1.03383958152427,-0.72727284491480,-0.95764287381385,-0.09398185461594,-0.05271502206804,0.20921425903580,

-0.22165079228580,-0.23957705916837,-0.22852993709967,-0.56865790719166,0.63412376632914,-0.59711016854271,-0.61332858772948,-0.37527602817863,-0.92556597851217,0.68396488903090,0.62588751595467,-0.03288589650765,-0.32707142550498,-0.99397800676525,0.20281392848119,-0.24635648680851,-0.32418375974521,0.80934156430885,-0.50562681956217,-0.03938380768523,0.25300912139937,0.28419987345114,0.85904906457290,0.18422339018434,0.48982315417379,0.31890464853495,0.76369128143415,-0.31862290529534,-0.85820298222825,0.02587156090885,-0.74043450690806,-0.22229581046849,0.98631616355851,0.43881113780662,-0.02154635172337,-0.73053681198508,0.20285554509610,0.30769919697195,0.35836276598275,-0.66997915180400,0.36494572274387,-0.28040140122175,
-0.96136206341907,-0.78639038186520,0.30042660748586,0.32359908288345,-0.67909981263801,-0.96384816803038,0.97230378817767,0.04099833499640,-0.01204582815990,0.82725531375036,-0.07122889813036,0.20590870641172,-0.34275689674541,-0.66225067572668,-0.48966232640669,-0.12355552800000,-0.50822364352643,-0.76789665827528,0.37524390406907,-0.13693267572671,0.84649078594521,-0.74209744995460,-0.84031522786245,0.72807249007747,-0.69733294146135,0.39850015332922,0.85714208800346,0.73360325070098,0.27408413356170,-0.11713545955718,0.00905233155936,-0.23281659046188,0.80496893776581,-0.07790384814143,0.88347505219281,0.38199372077361,0.74061208218336,-0.74422074481845,0.61459673801437,0.04806763585657,
-0.15665953337857,-0.34333159727243,0.39852285023417,-0.92350662845969,1.00955685158793,0.80552925538697,1.03383958152427,-0.72727284491480,-1.23068907100123,-0.09398185461594,-0.05271502206804,1.04749989175443,

-0.22165079228580,-0.23957705916837,-0.22852993709967,-0.56865790719166,0.63412376632914,-0.59711016854271,-0.61332858772948,-0.62939301691949,-0.92556597851217,0.68396488903090,0.62588751595467,-0.03288589650765,-0.32707142550498,-0.99397800676525,0.20281392848119,-0.24635648680851,-0.32418375974521,0.80934156430885,-0.50562681956217,-0.03938380768523,0.25300912139937,0.28419987345114,0.85904906457290,0.18422339018434,0.48982315417379,0.31890464853495,0.76369128143415,-0.31862290529534,-0.57849325751886,0.02587156090885,-0.74043450690806,-0.22229581046849,0.98631616355851,0.43881113780662,-0.02154635172337,-0.93587889382616,0.20285554509610,0.30769919697195,0.35836276598275,-0.66997915180400,0.36494572274387,0.46202203212306,
-0.96136206341907,0.44266627402976,0.30042660748586,0.06562799634412,-0.67909981263801,0.31533676665276,-0.09869890986010,0.04099833499640,0.56283970829099,0.82725531375036,-0.90558259235695,0.20590870641172,-0.34275689674541,-0.53201409010217,-0.48966232640669,-0.12355552800000,-0.50822364352643,-0.76789665827528,0.37524390406907,-0.13693267572671,-0.73684387793764,-0.74209744995460,-0.84031522786245,0.72807249007747,-0.69733294146135,0.21881424356252,0.85714208800346,0.56909551564604,0.27408413356170,-0.11713545955718,0.05276617920026,-0.23281659046188,0.79584932094440,0.47826541308314,0.88347505219281,-0.86393199022859,-0.05866768211126,-0.74422074481845,-0.62267538532615,0.04806763585657,
-0.15665953337857,-0.34333159727243,0.39852285023417,-0.92350662845969,-1.13770019287895,0.80552925538697,1.03383958152427,-0.72727284491480,-1.23068907100123,-0.09398185461594,-0.05271502206804,0.20921425903580,

-0.22165079228580,-0.23957705916837,-0.22852993709967,0.68741966597736,-0.35143384756520,-0.59711016854271,-0.61332858772948,-0.62939301691949,0.05645818263292,0.73130004294217,0.62588751595467,-0.74397273128852,-0.41591115947813,-0.99397800676525,0.20281392848119,0.94338310975581,0.06525194970891,0.13819569628686,-0.50562681956217,-0.03938380768523,0.25300912139937,0.28419987345114,0.85904906457290,0.18422339018434,0.48982315417379,0.31890464853495,0.76369128143415,0.03301616944373,0.38144702743739,0.66007174598053,0.99716206872836,-0.17000291915610,-0.71334375767037,0.43881113780662,-0.02154635172337,-0.88490023138002,0.20285554509610,0.30769919697195,0.35836276598275,-0.66552762407809,0.32437395490706,-0.28040140122175,
0.84987063799053,0.44266627402976,0.30042660748586,0.04995891777799,-0.67909981263801,0.79673306643963,-0.09869890986010,0.04099833499640,0.56283970829099,0.82725531375036,-0.90558259235695,-0.29127094568685,-0.34275689674541,-0.53201409010217,0.88759730570018,-0.12355552800000,-0.50822364352643,-0.76789665827528,-0.64401382720098,0.65025797765702,-0.36737503483891,-0.74209744995460,-0.84031522786245,0.10567752784118,-0.69733294146135,-0.75925743393600,0.85714208800346,0.56909551564604,0.67096288362518,-0.11713545955718,0.05276617920026,-0.23281659046188,0.79584932094440,-0.50974227068946,0.88347505219281,0.05014781933278,-0.05866768211126,-0.74422074481845,-0.62267538532615,0.04806763585657,
1.00095052995677,0.18188052223399,0.39852285023417,-0.92350662845969,1.04832308866082,0.80552925538697,1.03383958152427,-0.72727284491480,-0.09610006968612,-0.53498047838960,-0.05271502206804,0.20921425903580,

-0.22165079228580,-0.23957705916837,-0.22852993709967,-0.56865790719166,0.63412376632914,-0.59711016854271,-0.61332858772948,-0.62939301691949,-0.92556597851217,0.68396488903090,0.62588751595467,-0.03288589650765,-0.32707142550498,-0.99397800676525,0.20281392848119,-0.24635648680851,-0.32418375974521,0.80934156430885,-0.50562681956217,-0.03938380768523,0.25300912139937,0.28419987345114,0.85904906457290,0.18422339018434,0.48982315417379,0.31890464853495,0.76369128143415,0.03301616944373,-0.57849325751886,0.02587156090885,-0.74043450690806,-0.22229581046849,0.98631616355851,0.43881113780662,-0.02154635172337,-0.93587889382616,0.20285554509610,0.30769919697195,0.35836276598275,-0.66997915180400,0.32437395490706,-0.28040140122175,
-0.96136206341907,0.44266627402976,0.30042660748586,0.06562799634412,-0.67909981263801,0.31533676665276,-0.09869890986010,0.04099833499640,0.56283970829099,0.26021880051121,-0.07122889813036,-0.29127094568685,-0.34275689674541,-0.53201409010217,0.01094305748120,-0.12355552800000,-0.50822364352643,-0.76789665827528,0.37524390406907,0.10429944703355,0.33228284539655,-0.74209744995460,-0.84031522786245,0.72807249007747,-0.69733294146135,0.21881424356252,0.85714208800346,0.73360325070098,0.27408413356170,-0.19216229720041,0.05276617920026,-0.23281659046188,0.80496893776581,0.47826541308314,-0.93786734854802,0.70061897858977,-0.05866768211126,-0.74422074481845,-0.62267538532615,-0.54752642894164,
-0.80785628568626,-0.34333159727243,0.39852285023417,-0.92350662845969,1.00955685158793,0.80552925538697,1.03383958152427,-0.72727284491480,-1.23068907100123,-0.09398185461594,-0.05271502206804,0.20921425903580,

0.43553606979549,-0.23957705916837,-0.22852993709967,-0.56865790719166,0.63412376632914,-0.59711016854271,-0.61332858772948,-0.37527602817863,-0.92556597851217,0.73130004294217,0.62588751595467,-0.49633106775582,-0.41591115947813,-0.99397800676525,-0.30560183431953,0.76088203722611,-0.33428237959743,0.80934156430885,-0.50562681956217,-0.03938380768523,0.25300912139937,0.28419987345114,0.85904906457290,-0.09520275052637,0.48982315417379,0.31890464853495,0.76369128143415,0.03301616944373,-0.85820298222825,0.66007174598053,-0.74043450690806,-0.17000291915610,-0.10672061145306,0.43881113780662,-0.02154635172337,-0.73053681198508,0.20285554509610,0.30769919697195,0.35836276598275,-0.66552762407809,0.32437395490706,-0.28040140122175,
-0.96136206341907,0.44266627402976,-0.94373152358457,0.06562799634412,-0.67909981263801,0.31533676665276,-0.48839381244034,0.04099833499640,-0.96443996485323,0.82725531375036,-0.90558259235695,0.94289595168084,-0.06921353237703,-0.39217806980014,-0.48966232640669,-0.08988835709170,-0.50822364352643,-0.09671663679183,0.37524390406907,-0.13693267572671,0.40494164312258,-0.74209744995460,0.64575603464618,0.72807249007747,-0.69733294146135,0.21881424356252,-0.63477121479809,0.97284279903397,0.27408413356170,-0.29957878636196,-0.89693210599944,-0.23281659046188,-0.74414451187477,0.47826541308314,0.63680901797488,0.70061897858977,0.74061208218336,-0.74422074481845,-0.62267538532615,0.04806763585657,
-0.15665953337857,0.18188052223399,0.00881019285372,-0.92350662845969,-1.13770019287895,0.80552925538697,1.03383958152427,-0.72727284491480,-0.47406914702532,-0.09398185461594,-0.05271502206804,0.20921425903580,

-0.22165079228580,-0.23957705916837,-0.22852993709967,-0.26742450660095,0.63412376632914,-0.59711016854271,-0.61332858772948,-0.62939301691949,-0.92556597851217,0.73130004294217,0.62588751595467,-0.49633106775582,0.08089582109824,-0.68770588841289,0.60310877021402,0.76088203722611,-0.41599151864648,0.80934156430885,-0.50562681956217,-0.03938380768523,0.27090955898166,-0.92189355660230,0.85904906457290,0.18422339018434,0.48982315417379,0.31890464853495,-0.31870563933626,-0.08601756487042,0.20928576961160,0.66007174598053,0.45374751184136,0.71537821786478,0.98631616355851,0.04738844977692,-0.02154635172337,-0.93587889382616,0.41980835841969,0.22305339481682,0.29190088016912,-0.66997915180400,0.36494572274387,-0.28040140122175,
-0.96136206341907,-0.78639038186520,-0.50611469848081,-0.49605402443558,0.56970248091966,0.31533676665276,0.97230378817767,-0.44355219556019,-0.01204582815990,0.82725531375036,-0.90558259235695,0.20590870641172,-0.74822083627805,-0.29538737796247,-0.48966232640669,-0.12355552800000,-0.50822364352643,-0.09671663679183,-0.53102410305291,-0.13693267572671,-0.52767290873453,-0.74209744995460,0.64575603464618,-0.69375319033861,-0.69733294146135,0.90142784873024,0.85714208800346,-0.11623266944662,0.27408413356170,-0.11713545955718,0.91017227573320,-0.23281659046188,0.79584932094440,-0.07790384814143,-0.71761804400012,0.38199372077361,-0.05866768211126,-0.74422074481845,-0.21954321302474,0.04806763585657,
-0.15665953337857,0.18188052223399,0.39852285023417,-0.92350662845969,-1.13770019287895,0.80552925538697,1.03383958152427,-0.72727284491480,-0.95764287381385,-0.09398185461594,-0.05271502206804,1.30813798966812,

-0.22165079228580,-0.23957705916837,0.88427726877853,-0.56865790719166,0.63412376632914,-0.59711016854271,-0.61332858772948,-0.62939301691949,0.05418774858117,0.76632671942934,0.86354383546859,-0.49633106775582,-0.41591115947813,0.45418738992885,0.20281392848119,-0.24635648680851,0.92374071944505,0.80934156430885,0.02278578141704,-0.03938380768523,0.25300912139937,0.28419987345114,0.85904906457290,0.18422339018434,0.48982315417379,-0.82387820119038,0.31117937155068,0.03301616944373,-0.13490550639108,-0.61232853867114,-0.34837850881740,0.49165918678045,-0.10672061145306,0.43881113780662,0.26483224844560,-0.54246464138851,0.87654207181185,0.30769919697195,-0.17468750569969,-0.66552762407809,-0.47530267667025,0.80599157093093,
-0.96136206341907,-0.24011792009696,0.30042660748586,0.06562799634412,0.09525386709720,0.31533676665276,-0.09869890986010,-0.65299830678850,0.56283970829099,-0.79295208305120,-0.90558259235695,-0.29127094568685,-0.34275689674541,-0.53201409010217,-0.48966232640669,0.64303060434759,-0.36446813168004,-0.23080412205309,-0.53910358203575,-0.13693267572671,0.69316390808672,0.36756607191637,-0.84031522786245,0.72807249007747,-0.69733294146135,0.66925237420946,-0.19959266809747,0.56909551564604,0.89315849496052,0.23517900146544,0.05276617920026,-0.23281659046188,0.79584932094440,0.47826541308314,0.88347505219281,0.23409647122025,-0.05866768211126,-0.20228297635913,-0.53684549639001,0.04806763585657,
1.01462472413284,0.18188052223399,0.39852285023417,-0.92350662845969,-1.13770019287895,0.80552925538697,-0.74315363597559,-0.72727284491480,-1.23068907100123,-0.09398185461594,-1.20754136583567,0.20921425903580,

0.25988653022796,-0.23957705916837,-0.56641790457070,-0.27444114210084,0.63412376632914,0.46569174574688,-0.61332858772948,-0.62939301691949,-0.92350832791999,0.73130004294217,-0.46031409827992,0.31282947119325,-0.95604400383309,-0.99397800676525,0.20281392848119,-0.24635648680851,0.92374071944505,-0.22537457710132,0.72406375780702,-0.03938380768523,-0.62988113425672,0.06613794527948,-0.37611122941598,0.18422339018434,-0.82939917827025,0.31890464853495,0.33145481953397,0.56643724162132,-0.64790007937700,0.66007174598053,-0.74043450690806,-0.17000291915610,-0.10672061145306,0.43881113780662,-0.02154635172337,0.52690459042788,0.20285554509610,0.30769919697195,0.35836276598275,-0.66552762407809,0.32437395490706,0.54397442843765,
-0.96136206341907,0.44266627402976,-0.66590693360195,0.06562799634412,0.40130454814062,0.31533676665276,0.71592347789556,0.04099833499640,0.51906651910394,0.92754010809585,-0.90558259235695,-0.29127094568685,-0.34275689674541,-0.53201409010217,-0.88408452877775,-0.12355552800000,-0.71746818069369,-0.61977812973782,0.78021607175469,-0.13693267572671,-0.73684387793764,-0.74209744995460,-0.84031522786245,0.01502049807459,0.72666064510122,0.21881424356252,0.85714208800346,0.73360325070098,-0.87478173710406,-0.11713545955718,0.05276617920026,-0.02429902367294,0.71594781754538,0.47826541308314,0.88347505219281,-0.86393199022859,-0.05866768211126,-0.17710853507742,-0.62267538532615,-0.32765385461971,
-0.15665953337857,0.18188052223399,0.39852285023417,-0.92350662845969,-1.13770019287895,0.80552925538697,1.03383958152427,-0.72727284491480,-0.95764287381385,-0.09398185461594,-0.05271502206804,0.20921425903580,

-0.22165079228580,-0.23957705916837,-0.22852993709967,-0.56865790719166,0.63412376632914,-0.59711016854271,-0.61332858772948,-0.62939301691949,-0.92556597851217,0.73130004294217,0.62588751595467,-0.49633106775582,-0.41591115947813,-0.99397800676525,0.20281392848119,-0.24635648680851,0.92374071944505,0.80934156430885,-0.50562681956217,-0.03938380768523,0.25300912139937,0.28419987345114,0.85904906457290,0.18422339018434,0.48982315417379,0.31890464853495,0.76369128143415,0.03301616944373,0.38144702743739,0.66007174598053,-0.74043450690806,-0.17000291915610,-0.10672061145306,0.43881113780662,-0.02154635172337,0.52690459042788,0.20285554509610,0.30769919697195,0.35836276598275,-0.66552762407809,0.32437395490706,-0.28040140122175,
-0.96136206341907,0.44266627402976,-0.50611469848081,0.06562799634412,-0.67909981263801,0.31533676665276,-0.09869890986010,0.04099833499640,0.56283970829099,0.82725531375036,-0.90558259235695,-0.29127094568685,-0.06921353237703,-0.53201409010217,-0.48966232640669,-0.12355552800000,-0.50822364352643,-0.09671663679183,0.37524390406907,-0.13693267572671,0.33228284539655,-0.74209744995460,0.64575603464618,0.72807249007747,-0.69733294146135,0.21881424356252,0.85714208800346,0.56909551564604,0.27408413356170,-0.11713545955718,0.05276617920026,-0.23281659046188,0.79584932094440,0.47826541308314,0.88347505219281,0.70061897858977,0.74061208218336,-0.74422074481845,-0.62267538532615,0.04806763585657,
-0.15665953337857,0.18188052223399,0.39852285023417,-0.92350662845969,-1.13770019287895,0.80552925538697,1.03383958152427,-0.72727284491480,-1.23068907100123,-0.09398185461594,-0.05271502206804,0.20921425903580,

-0.22165079228580,-0.23957705916837,-0.22852993709967,-0.56865790719166,0.63412376632914,-0.59711016854271,-0.61332858772948,-0.37527602817863,-0.92556597851217,0.67313376162201,0.62588751595467,-0.49633106775582,-0.41591115947813,-0.99397800676525,0.20281392848119,-0.24635648680851,-0.99230939522386,0.80934156430885,-0.50562681956217,-0.03938380768523,0.25300912139937,0.28419987345114,0.85904906457290,0.18422339018434,0.48982315417379,0.31890464853495,0.76369128143415,0.03301616944373,0.38144702743739,0.93845691671595,-0.74043450690806,-0.17000291915610,-0.10672061145306,0.43881113780662,-0.02154635172337,0.52690459042788,0.20285554509610,0.30769919697195,0.35836276598275,-0.66552762407809,0.32437395490706,-0.28040140122175,
-0.96136206341907,0.44266627402976,0.30042660748586,0.06562799634412,-0.67909981263801,0.31533676665276,-0.09869890986010,0.04099833499640,0.56283970829099,0.82725531375036,-0.90558259235695,-0.29127094568685,-0.34275689674541,-0.53201409010217,-0.48966232640669,-0.12355552800000,-0.50822364352643,-0.76789665827528,0.37524390406907,-0.13693267572671,-0.73684387793764,-0.74209744995460,-0.84031522786245,0.72807249007747,-0.69733294146135,0.21881424356252,0.85714208800346,0.73360325070098,0.27408413356170,-0.11713545955718,0.05276617920026,-0.23281659046188,0.79584932094440,0.47826541308314,0.88347505219281,-0.86393199022859,-0.05866768211126,-0.74422074481845,-0.62267538532615,0.04806763585657,
-0.15665953337857,0.18188052223399,0.39852285023417,-0.92350662845969,-1.13770019287895,0.80552925538697,1.03383958152427,-0.72727284491480,-1.23068907100123,-0.09398185461594,-0.05271502206804,0.20921425903580,

-0.22165079228580,-0.23957705916837,-0.22852993709967,-0.56865790719166,0.63412376632914,-0.59711016854271,-0.61332858772948,-0.62939301691949,-0.92556597851217,0.68396488903090,0.18790761521086,-0.03288589650765,-0.32707142550498,-0.99397800676525,0.20281392848119,-0.24635648680851,-0.33428237959743,0.30955878878012,-0.50562681956217,-0.03938380768523,0.25300912139937,0.28419987345114,0.85904906457290,-0.09520275052637,0.48982315417379,0.31890464853495,0.76369128143415,0.03301616944373,-0.57849325751886,0.02587156090885,-0.74043450690806,-0.17000291915610,0.98631616355851,0.43881113780662,-0.02154635172337,-0.93587889382616,0.20285554509610,0.30769919697195,0.35836276598275,-0.66997915180400,0.32437395490706,-0.28040140122175,
-0.96136206341907,0.44266627402976,0.30042660748586,0.32359908288345,-0.13876376533881,0.31533676665276,-0.48839381244034,0.04099833499640,-0.01204582815990,0.26021880051121,-0.90558259235695,0.94289595168084,-0.34275689674541,-0.66225067572668,0.01094305748120,-0.08988835709170,-0.50822364352643,-0.76789665827528,0.37524390406907,0.10429944703355,0.40494164312258,-0.74209744995460,-0.84031522786245,0.72807249007747,-0.69733294146135,0.21881424356252,-0.63477121479809,0.73360325070098,0.27408413356170,-0.19216229720041,-0.89693210599944,-0.23281659046188,0.80496893776581,-0.07790384814143,-0.93786734854802,0.70061897858977,-0.05866768211126,-0.74422074481845,0.61459673801437,-0.54752642894164,
-0.80785628568626,0.18188052223399,0.39852285023417,-0.92350662845969,1.00955685158793,0.80552925538697,1.03383958152427,-0.72727284491480,-1.23068907100123,-0.87837154701871,1.11837019970188,0.20921425903580,

-0.22165079228580,-0.23957705916837,-0.22852993709967,-0.56865790719166,0.63412376632914,-0.59711016854271,-0.61332858772948,-0.62939301691949,-0.92556597851217,0.67313376162201,0.62588751595467,-0.03288589650765,-0.41591115947813,-0.99397800676525,0.20281392848119,-0.24635648680851,-0.99230939522386,0.80934156430885,-0.50562681956217,-0.03938380768523,0.25300912139937,0.28419987345114,0.85904906457290,0.18422339018434,0.48982315417379,0.31890464853495,0.76369128143415,-0.31862290529534,-0.57849325751886,0.93845691671595,-0.74043450690806,-0.22229581046849,-0.10672061145306,0.43881113780662,-0.02154635172337,-0.93587889382616,0.20285554509610,0.30769919697195,0.35836276598275,-0.66552762407809,0.36494572274387,-0.28040140122175,
-0.96136206341907,0.44266627402976,0.30042660748586,0.32359908288345,-0.67909981263801,0.31533676665276,-0.09869890986010,0.04099833499640,-0.01204582815990,0.82725531375036,-0.90558259235695,-0.29127094568685,-0.34275689674541,-0.66225067572668,-0.48966232640669,-0.12355552800000,-0.50822364352643,-0.76789665827528,0.37524390406907,-0.13693267572671,0.84649078594521,-0.74209744995460,-0.84031522786245,0.72807249007747,-0.69733294146135,0.39850015332922,0.85714208800346,0.73360325070098,0.27408413356170,-0.11713545955718,0.00905233155936,-0.23281659046188,0.80496893776581,0.47826541308314,0.88347505219281,0.38199372077361,-0.05866768211126,-0.74422074481845,-0.62267538532615,0.04806763585657,
-0.15665953337857,-0.34333159727243,0.39852285023417,-0.92350662845969,1.00955685158793,0.80552925538697,1.03383958152427,-0.72727284491480,-1.23068907100123,-0.09398185461594,-0.05271502206804,1.04749989175443,

0.86093142209575,-0.23957705916837,-0.22852993709967,-0.27702033706009,0.63412376632914,-0.11882826406509,0.65261525427923,-0.90028203884140,-0.92556597851217,0.32968544727191,0.62588751595467,-0.49633106775582,0.19786098599434,0.50084383459762,0.20281392848119,0.76088203722611,0.92374071944505,0.80934156430885,-0.50562681956217,-0.03938380768523,-0.00194903602824,0.28419987345114,0.85904906457290,0.81533974828199,-0.87876607850194,0.31890464853495,0.76369128143415,0.03301616944373,0.78708283836022,0.66007174598053,-0.74043450690806,0.50257341843098,-0.10672061145306,0.43881113780662,-0.02154635172337,-0.73053681198508,0.20285554509610,0.30769919697195,0.53823335561901,-0.79834685521200,0.32437395490706,-0.28040140122175,
0.26932846847922,-0.36789993336424,-0.50962237454951,-0.07035527238622,-0.67909981263801,-0.70647553727031,0.40786503767595,0.04099833499640,0.52431656373665,0.82725531375036,-0.90558259235695,-0.29127094568685,0.98480315040797,0.11200613109395,-0.48966232640669,0.76820161193609,-0.50822364352643,-0.76789665827528,0.37524390406907,-0.13693267572671,-0.73684387793764,0.17014383943751,0.30527711659670,0.72807249007747,-0.69733294146135,0.21881424356252,-0.80773523496464,0.56909551564604,0.27408413356170,-0.11713545955718,-0.65855839289725,0.25797541486099,0.79584932094440,0.47826541308314,0.88347505219281,0.09713062178344,-0.06775774667040,-0.74422074481845,-0.78160262061283,0.04806763585657,
-0.15665953337857,0.89442258408249,0.85315331275962,-0.92350662845969,-0.51924369211314,0.80552925538697,1.03383958152427,-0.03212166358749,-1.23068907100123,-0.09398185461594,-0.05271502206804,0.20921425903580,

-0.22165079228580,-0.23957705916837,0.38797680567950,-0.56865790719166,0.52614645566791,-0.59711016854271,-0.61332858772948,-0.62939301691949,-0.36548967054114,0.42130131367594,0.43038343777880,0.73145080730319,-0.41591115947813,-0.99397800676525,0.20281392848119,-0.24635648680851,0.92374071944505,0.92430409835652,-0.54911895655096,-0.03938380768523,0.25300912139937,0.28419987345114,0.85904906457290,0.18422339018434,0.23295865906402,-0.57191798370332,-0.93859642604366,-0.96843642648309,0.38144702743739,0.97721728356555,-0.74043450690806,-0.17000291915610,0.52895794901997,0.43881113780662,-0.02154635172337,-0.68373800814152,0.20285554509610,-0.82178624253720,-0.22613241663203,0.02285677101463,0.32437395490706,-0.28040140122175,
-0.96136206341907,0.44266627402976,0.30042660748586,0.06562799634412,-0.13876376533881,0.53288879944012,-0.48839381244034,0.04099833499640,-0.82740479707718,0.51834510406479,-0.90558259235695,0.94289595168084,-0.06921353237703,-0.39217806980014,0.50062309810892,-0.12355552800000,-0.50822364352643,-0.09671663679183,0.62464877124876,-0.13693267572671,-0.34493490075693,-0.74209744995460,0.64575603464618,0.72807249007747,0.99088325677440,0.02672244654968,-0.63477121479809,-0.24578882893547,0.27408413356170,-0.11713545955718,0.05276617920026,-0.23281659046188,-0.74414451187477,0.47826541308314,-0.39014668529853,0.70061897858977,-0.12594901397824,0.08501257421449,-0.62267538532615,-0.41725788218901,
-0.15665953337857,-1.14015547103750,0.39852285023417,-0.92350662845969,0.08062530417287,-0.08230585851631,1.03383958152427,-0.72727284491480,-0.47406914702532,1.04050406272973,-0.73621020525047,0.19871933299773,

