-0.99620102019981,-0.43473444040865,-0.50019094301388,0.21571782976389,0.32996689481661,-0.10155574558303,0.96833875169978,-0.40885820798576,-0.26079830108210,0.23229239927605,-0.20532583352178,0.51199372671545,-0.17577370349318,0.51974236965179,0.61699626827613,-0.73811983503401,0.45987832220271,0.55911443661898,0.76897398987785,0.20768601028249,0.89155907137319,-0.32511911820620,0.27062102966011,-0.29919766495004,-0.57558595389128,0.66164098028094,0.88454850204289,0.64787185471505,0.52191589167342,0.58449802827090,-0.15110791614279,-0.88707741303369,-0.82711061788723,-0.82033169362694,-0.46213996736333,0.09504708275199,0.76240961346775,0.18306291056797,0.30549620650709,-0.74842470511794,0.41175151336938,-0.33327592397109,
0.16347718844190,0.11049221688882,0.57362709939480,-0.18535575037822,0.42902748659253,0.97921159956604,-0.80306907324120,-0.79916815273464,-0.61118734907359,-0.05946241226047,-0.56945618474856,0.55714480718598,0.78955942159519,0.96349001722410,0.12655767146498,-0.26736539974809,0.34721838682890,0.95730094984174,-0.04529479471967,-0.02334096562117,0.88088158937171,0.37341340677813,-0.19940757332370,-0.58277864707634,0.95730017125607,0.36430451180786,-0.75417972868308,-0.46314727794379,0.04124640207738,-0.43859610799700,0.75847228942439,0.43131820065901,0.20301018981263,-0.62669664667919,-0.50450717331842,-0.55485658906400,0.55179556785151,-0.90480769705027,-0.06056195683777,-0.22461498994380,
-0.11703558707534,-1.17253588194250,0.15586730830459,0.49561906499232,-1.05146767924785,-0.74491501680873,-0.02781174888948,1.06558719922037,-0.79616712995691,1.07863700237700,-1.21034051126475,0.39885301402816,

-0.99620102019981,-0.73431448591873,-0.50019094301388,-0.96863716607913,0.32996689481661,-0.10155574558303,0.96833875169978,-0.40885820798576,-0.26079830108210,0.11098664393649,0.43966872710735,0.51199372671545,-0.17577370349318,0.51974236965179,0.61699626827613,0.82396973017603,0.45987832220271,0.14656770369038,0.76897398987785,0.20768601028249,0.42036712216213,-0.32511911820620,0.27062102966011,0.75594650115818,-0.57558595389128,0.66164098028094,0.88454850204289,0.64787185471505,0.52191589167342,0.58449802827090,0.27809886215255,-0.88707741303369,-0.96851991349831,-0.49923739349470,-0.46213996736333,0.09504708275199,0.76240961346775,0.24098440445960,0.46444709133357,-0.74842470511794,0.41175151336938,-0.33327592397109,
0.16347718844190,0.11049221688882,0.57362709939480,-0.18535575037822,-0.96968180825934,0.97921159956604,-0.80306907324120,0.79101868811995,-0.61118734907359,-0.05946241226047,-0.56945618474856,0.55714480718598,0.78955942159519,0.96349001722410,-0.95534638548270,-0.26736539974809,0.34721838682890,0.95730094984174,-0.04529479471967,-0.02334096562117,0.88088158937171,0.37341340677813,-0.19940757332370,-0.58277864707634,0.99824449094012,0.36430451180786,-0.75417972868308,0.95583754964173,0.04124640207738,0.83922631945461,0.75847228942439,0.43131820065901,0.20301018981263,-0.62669664667919,-0.50450717331842,-0.55485658906400,0.55179556785151,-0.90480769705027,-0.06056195683777,-0.44832140766084,
-0.26552019738507,0.26268965028949,-0.26252700777715,1.23793909658935,1.23399356291753,-0.74491501680873,-1.16961137494433,1.06558719922037,0.82711104814281,-0.16780983507204,-1.21034051126475,0.39885301402816,

-0.99620102019981,-0.73431448591873,0.58534542145208,-0.96863716607913,0.24648319883272,-0.16894202120602,0.96833875169978,0.52623390080407,-0.26079830108210,0.11098664393649,0.43966872710735,0.51199372671545,-0.17577370349318,0.36648954544216,-0.48276570113376,0.71602747775614,0.45987832220271,-0.23169735260308,0.53117787977681,-0.94000076781958,0.42036712216213,0.23464804375544,0.27062102966011,0.75594650115818,-0.57558595389128,0.66164098028094,0.59507596492767,0.69212119420990,0.52191589167342,0.79999360069633,-0.36952165002003,-0.88707741303369,0.19888011412695,-0.49923739349470,0.96852620737627,0.09504708275199,0.76240961346775,-0.59090519091114,0.77671568188816,-0.74842470511794,-0.74027263838798,-0.33327592397109,
0.16347718844190,0.11049221688882,0.57362709939480,0.61479021748528,-0.96968180825934,0.97921159956604,-0.80306907324120,0.79101868811995,0.91409700410441,-0.03275267314166,-0.51698907883838,0.55714480718598,0.78955942159519,0.96349001722410,-0.95534638548270,0.95748703600839,0.34721838682890,0.95730094984174,-0.04529479471967,-0.97881810367107,0.88088158937171,0.37341340677813,-0.19940757332370,-0.50731836585328,0.91415214771405,0.36430451180786,0.69879117840901,0.95583754964173,0.04124640207738,0.83922631945461,0.75847228942439,0.43131820065901,0.20301018981263,-0.62669664667919,-0.50450717331842,0.30744611192495,0.55179556785151,-0.90480769705027,0.58710377989337,-0.44832140766084,
-1.18648573024354,-0.60966437679583,-0.26321478316771,0.30440750622187,-0.58758346130651,-0.74491501680873,-1.16961137494433,1.26866268487012,0.82711104814281,0.50240712319329,-1.21034051126475,0.39885301402816,

-0.99620102019981,-0.73431448591873,-0.50019094301388,-0.96863716607913,0.32996689481661,-0.10155574558303,0.96833875169978,-0.40885820798576,-0.26079830108210,0.11098664393649,0.43966872710735,0.51199372671545,-0.17577370349318,0.36648954544216,0.61699626827613,0.82396973017603,0.45987832220271,0.14656770369038,0.76897398987785,0.20768601028249,0.42036712216213,-0.32511911820620,0.27062102966011,0.75594650115818,-0.57558595389128,0.66164098028094,0.88454850204289,0.64787185471505,0.52191589167342,0.58449802827090,0.27809886215255,-0.88707741303369,-0.96851991349831,-0.49923739349470,-0.46213996736333,0.09504708275199,0.76240961346775,0.24098440445960,0.46444709133357,-0.74842470511794,0.41175151336938,-0.33327592397109,
0.16347718844190,0.11049221688882,0.57362709939480,-0.18535575037822,-0.96968180825934,0.97921159956604,-0.80306907324120,0.79101868811995,-0.61118734907359,-0.05946241226047,-0.56945618474856,0.55714480718598,0.78955942159519,0.96349001722410,-0.95534638548270,-0.26736539974809,0.34721838682890,0.95730094984174,-0.04529479471967,-0.02334096562117,0.88088158937171,0.37341340677813,-0.19940757332370,-0.58277864707634,0.99824449094012,0.36430451180786,-0.75417972868308,0.95583754964173,0.04124640207738,0.83922631945461,0.75847228942439,0.43131820065901,0.20301018981263,-0.62669664667919,-0.50450717331842,-0.55485658906400,0.55179556785151,-0.90480769705027,-0.06056195683777,-0.44832140766084,
-0.26552019738507,0.26268965028949,-0.26252700777715,1.23793909658935,1.23399356291753,-0.74491501680873,-1.16961137494433,1.06558719922037,0.82711104814281,-0.16780983507204,-1.21034051126475,0.39885301402816,

-0.99620102019981,-0.73431448591873,-0.50019094301388,-0.96863716607913,0.32996689481661,-0.10155574558303,0.96833875169978,-0.40885820798576,-0.26079830108210,0.11098664393649,0.43966872710735,0.51199372671545,-0.17577370349318,0.36648954544216,0.61699626827613,0.82396973017603,0.45987832220271,0.14656770369038,0.76897398987785,0.20768601028249,0.42036712216213,-0.32511911820620,0.27062102966011,0.75594650115818,-0.57558595389128,0.66164098028094,0.88454850204289,0.64787185471505,0.52191589167342,0.58449802827090,0.27809886215255,-0.88707741303369,-0.96851991349831,-0.49923739349470,-0.46213996736333,0.09504708275199,0.76240961346775,0.24098440445960,0.46444709133357,-0.74842470511794,0.41175151336938,-0.33327592397109,
0.16347718844190,0.11049221688882,0.57362709939480,-0.18535575037822,-0.96968180825934,0.97921159956604,-0.80306907324120,0.79101868811995,-0.61118734907359,-0.05946241226047,-0.51698907883838,0.55714480718598,0.78955942159519,0.96349001722410,-0.95534638548270,-0.26736539974809,0.34721838682890,0.95730094984174,-0.04529479471967,-0.02334096562117,0.88088158937171,0.37341340677813,-0.19940757332370,-0.58277864707634,0.99824449094012,0.36430451180786,-0.75417972868308,0.95583754964173,0.04124640207738,0.83922631945461,0.75847228942439,0.43131820065901,0.20301018981263,-0.62669664667919,-0.50450717331842,-0.55485658906400,0.55179556785151,-0.90480769705027,-0.06056195683777,-0.44832140766084,
-0.26552019738507,0.26268965028949,-0.26252700777715,1.23793909658935,1.23399356291753,-0.74491501680873,-1.16961137494433,1.06558719922037,0.82711104814281,-0.16780983507204,-1.21034051126475,0.39885301402816,

-0.99620102019981,-0.73431448591873,-0.50019094301388,-0.96863716607913,0.32996689481661,-0.10155574558303,0.96833875169978,-0.40885820798576,-0.26079830108210,0.11098664393649,0.43966872710735,0.51199372671545,-0.17577370349318,0.36648954544216,0.61699626827613,0.82396973017603,0.45987832220271,0.14656770369038,0.76897398987785,0.20768601028249,0.42036712216213,-0.32511911820620,0.27062102966011,0.75594650115818,-0.57558595389128,0.66164098028094,0.88454850204289,0.64787185471505,0.52191589167342,0.58449802827090,0.27809886215255,-0.88707741303369,-0.96851991349831,-0.49923739349470,-0.46213996736333,0.09504708275199,0.76240961346775,0.24098440445960,0.46444709133357,-0.74842470511794,0.41175151336938,-0.33327592397109,
0.16347718844190,0.11049221688882,0.57362709939480,-0.18535575037822,-0.96968180825934,0.97921159956604,-0.80306907324120,0.79101868811995,-0.61118734907359,-0.05946241226047,-0.56945618474856,0.55714480718598,0.78955942159519,0.96349001722410,-0.95534638548270,-0.26736539974809,0.34721838682890,0.95730094984174,-0.04529479471967,-0.02334096562117,0.88088158937171,0.37341340677813,-0.19940757332370,-0.58277864707634,0.99824449094012,0.36430451180786,-0.75417972868308,0.95583754964173,0.04124640207738,0.83922631945461,0.75847228942439,0.43131820065901,0.20301018981263,-0.62669664667919,-0.50450717331842,-0.55485658906400,0.55179556785151,-0.90480769705027,-0.06056195683777,-0.44832140766084,
-0.26552019738507,0.26268965028949,-0.26252700777715,1.23793909658935,1.23399356291753,-0.74491501680873,-1.16961137494433,1.06558719922037,0.82711104814281,-0.16780983507204,-1.21034051126475,0.39885301402816,

-0.99620102019981,-0.73431448591873,-0.50019094301388,-0.96863716607913,0.32996689481661,-0.10155574558303,0.96833875169978,-0.40885820798576,-0.26079830108210,0.11098664393649,0.43966872710735,0.51199372671545,-0.17577370349318,0.36648954544216,0.61699626827613,0.82396973017603,0.45987832220271,0.14656770369038,0.76897398987785,0.20768601028249,0.42036712216213,-0.32511911820620,0.27062102966011,0.75594650115818,-0.57558595389128,0.66164098028094,0.13558665616438,0.64787185471505,0.52191589167342,0.58449802827090,0.27809886215255,-0.88707741303369,-0.96851991349831,-0.49923739349470,-0.46213996736333,0.09504708275199,0.76240961346775,0.24098440445960,0.46444709133357,-0.74842470511794,0.41175151336938,-0.33327592397109,
0.16347718844190,0.11049221688882,0.57362709939480,-0.18535575037822,-0.96968180825934,0.97921159956604,-0.80306907324120,0.79101868811995,-0.61118734907359,-0.05946241226047,-0.51698907883838,0.55714480718598,0.78955942159519,0.96349001722410,-0.95534638548270,0.95748703600839,0.34721838682890,0.95730094984174,-0.04529479471967,-0.02334096562117,0.88088158937171,0.37341340677813,-0.19940757332370,-0.58277864707634,0.91415214771405,0.36430451180786,-0.75417972868308,0.95583754964173,0.04124640207738,0.83922631945461,0.75847228942439,0.43131820065901,0.20301018981263,-0.62669664667919,-0.50450717331842,-0.55485658906400,0.55179556785151,-0.90480769705027,-0.06056195683777,-0.44832140766084,
-0.26552019738507,0.26268965028949,-0.26252700777715,1.23793909658935,1.23399356291753,-0.74491501680873,-1.16961137494433,1.06558719922037,0.82711104814281,-0.16780983507204,-1.21034051126475,0.39885301402816,

-0.99620102019981,-0.73431448591873,-0.50019094301388,-0.96863716607913,0.32996689481661,-0.10155574558303,0.96833875169978,-0.40885820798576,-0.26079830108210,0.11098664393649,0.43966872710735,0.51199372671545,-0.17577370349318,0.36648954544216,0.61699626827613,0.82396973017603,0.45987832220271,0.14656770369038,0.76897398987785,0.20768601028249,0.42036712216213,-0.32511911820620,0.27062102966011,0.75594650115818,-0.57558595389128,0.66164098028094,0.88454850204289,0.64787185471505,0.52191589167342,0.58449802827090,0.27809886215255,-0.88707741303369,-0.96851991349831,-0.49923739349470,-0.46213996736333,0.09504708275199,0.76240961346775,0.24098440445960,0.46444709133357,-0.74842470511794,0.41175151336938,-0.33327592397109,
0.16347718844190,0.11049221688882,0.57362709939480,-0.18535575037822,-0.96968180825934,0.97921159956604,-0.80306907324120,0.79101868811995,-0.61118734907359,-0.05946241226047,-0.56945618474856,0.55714480718598,0.78955942159519,0.96349001722410,-0.95534638548270,0.95748703600839,0.34721838682890,0.95730094984174,-0.04529479471967,-0.02334096562117,0.88088158937171,0.37341340677813,-0.19940757332370,-0.58277864707634,0.91415214771405,0.36430451180786,-0.75417972868308,0.95583754964173,0.04124640207738,0.83922631945461,0.75847228942439,0.43131820065901,0.20301018981263,-0.62669664667919,-0.50450717331842,-0.55485658906400,0.55179556785151,-0.90480769705027,-0.06056195683777,-0.44832140766084,
-0.26552019738507,0.26268965028949,-0.26252700777715,1.23793909658935,1.23399356291753,-0.74491501680873,-1.16961137494433,1.06558719922037,0.82711104814281,-0.16780983507204,-1.21034051126475,0.39885301402816,

-0.99620102019981,-0.73431448591873,-0.50019094301388,-0.96863716607913,0.32996689481661,-0.10155574558303,0.96833875169978,-0.40885820798576,-0.26079830108210,0.11098664393649,0.43966872710735,0.51199372671545,-0.17577370349318,0.36648954544216,0.61699626827613,0.82396973017603,0.45987832220271,0.14656770369038,0.76897398987785,0.20768601028249,0.42036712216213,-0.32511911820620,0.27062102966011,0.75594650115818,-0.57558595389128,0.66164098028094,0.13558665616438,0.64787185471505,0.52191589167342,0.58449802827090,0.27809886215255,-0.88707741303369,-0.96851991349831,-0.49923739349470,-0.46213996736333,0.09504708275199,0.76240961346775,0.24098440445960,0.46444709133357,-0.74842470511794,0.41175151336938,-0.33327592397109,
0.16347718844190,0.11049221688882,0.57362709939480,-0.18535575037822,-0.96968180825934,0.97921159956604,-0.80306907324120,0.79101868811995,-0.61118734907359,-0.05946241226047,-0.51698907883838,0.55714480718598,0.78955942159519,0.96349001722410,-0.95534638548270,0.95748703600839,0.34721838682890,0.95730094984174,-0.04529479471967,-0.02334096562117,0.88088158937171,0.37341340677813,-0.19940757332370,-0.58277864707634,0.91415214771405,0.36430451180786,-0.75417972868308,0.95583754964173,0.04124640207738,0.83922631945461,0.75847228942439,0.43131820065901,0.20301018981263,-0.62669664667919,-0.50450717331842,-0.55485658906400,0.55179556785151,-0.90480769705027,-0.06056195683777,-0.44832140766084,
-0.26552019738507,0.26268965028949,-0.26252700777715,1.23793909658935,1.23399356291753,-0.74491501680873,-1.16961137494433,1.06558719922037,0.82711104814281,-0.16780983507204,-1.21034051126475,0.39885301402816,

-0.99620102019981,-0.73431448591873,-0.50019094301388,-0.96863716607913,0.32996689481661,-0.10155574558303,0.96833875169978,-0.40885820798576,-0.26079830108210,0.11098664393649,0.43966872710735,0.51199372671545,-0.17577370349318,0.51974236965179,0.61699626827613,0.82396973017603,0.45987832220271,0.14656770369038,0.76897398987785,0.20768601028249,0.42036712216213,-0.32511911820620,0.27062102966011,0.75594650115818,-0.57558595389128,0.66164098028094,0.88454850204289,0.64787185471505,0.52191589167342,0.58449802827090,0.27809886215255,-0.88707741303369,-0.96851991349831,-0.49923739349470,-0.46213996736333,0.09504708275199,0.76240961346775,0.24098440445960,0.46444709133357,-0.74842470511794,0.41175151336938,-0.33327592397109,
0.16347718844190,0.11049221688882,0.57362709939480,-0.18535575037822,-0.96968180825934,0.97921159956604,-0.80306907324120,0.79101868811995,-0.61118734907359,-0.05946241226047,-0.56945618474856,0.55714480718598,0.78955942159519,0.96349001722410,-0.95534638548270,0.95748703600839,0.34721838682890,0.95730094984174,-0.04529479471967,-0.02334096562117,0.88088158937171,0.37341340677813,-0.19940757332370,-0.58277864707634,0.99824449094012,0.36430451180786,-0.75417972868308,0.95583754964173,0.04124640207738,0.83922631945461,-0.25973034417257,0.43131820065901,0.20301018981263,-0.62669664667919,-0.50450717331842,-0.03339384635910,0.55179556785151,-0.90480769705027,-0.06056195683777,-0.44832140766084,
-0.26552019738507,0.26268965028949,-0.26252700777715,1.23793909658935,1.23399356291753,-0.74491501680873,-1.16961137494433,1.06558719922037,0.82711104814281,-0.16780983507204,-1.21034051126475,0.39885301402816,

-0.99620102019981,-0.73431448591873,-0.50019094301388,-0.96863716607913,0.32996689481661,-0.10155574558303,0.96833875169978,-0.40885820798576,-0.26079830108210,0.11098664393649,0.43966872710735,0.51199372671545,-0.17577370349318,0.51974236965179,0.61699626827613,0.82396973017603,0.45987832220271,0.14656770369038,0.76897398987785,0.20768601028249,0.42036712216213,-0.32511911820620,0.27062102966011,0.75594650115818,-0.57558595389128,0.66164098028094,0.88454850204289,0.64787185471505,0.52191589167342,0.58449802827090,0.27809886215255,-0.88707741303369,-0.96851991349831,-0.49923739349470,-0.46213996736333,0.09504708275199,0.76240961346775,0.24098440445960,0.46444709133357,-0.74842470511794,0.41175151336938,-0.33327592397109,
0.16347718844190,0.11049221688882,0.57362709939480,-0.18535575037822,-0.96968180825934,0.97921159956604,-0.80306907324120,0.79101868811995,-0.61118734907359,-0.05946241226047,-0.51698907883838,0.55714480718598,0.78955942159519,0.96349001722410,-0.95534638548270,0.95748703600839,0.34721838682890,0.95730094984174,-0.04529479471967,-0.02334096562117,0.88088158937171,0.37341340677813,-0.19940757332370,-0.58277864707634,0.99824449094012,0.36430451180786,-0.75417972868308,0.95583754964173,0.04124640207738,0.83922631945461,0.75847228942439,0.43131820065901,0.20301018981263,-0.62669664667919,-0.50450717331842,-0.03339384635910,0.55179556785151,-0.90480769705027,-0.06056195683777,-0.44832140766084,
-0.26552019738507,0.26268965028949,-0.26252700777715,1.23793909658935,1.23399356291753,-0.74491501680873,-1.16961137494433,1.06558719922037,0.82711104814281,-0.16780983507204,-1.21034051126475,0.39885301402816,

-0.99620102019981,-0.73431448591873,-0.76929718814790,-0.96863716607913,0.00914206821471,-0.10155574558303,0.83925619162619,-0.40885820798576,-0.26079830108210,0.11098664393649,-0.47363832546398,0.70122305490077,-0.57847003312781,0.02378274220973,0.61699626827613,0.82396973017603,0.45987832220271,0.14656770369038,0.76897398987785,0.20768601028249,0.42036712216213,-0.38225240632892,-0.55527992499992,-0.29027762264013,-0.11120808729902,0.66164098028094,0.88454850204289,0.64787185471505,0.84442874137312,0.58449802827090,0.27809886215255,-0.88707741303369,0.41395443584770,-0.63864882895723,0.35607366170734,0.09504708275199,0.76240961346775,-0.79099552426487,0.89482926810160,-0.74842470511794,0.84042231226340,-0.33327592397109,
0.16347718844190,0.11049221688882,0.93004277208820,-0.18535575037822,0.71898169117048,0.97921159956604,-0.80306907324120,-0.18372096912935,-0.61118734907359,-0.05946241226047,-0.51698907883838,-0.66421938315034,-0.40286416979507,0.96349001722410,0.17312207957730,-0.07623169897124,0.16177166812122,0.95730094984174,-0.04529479471967,-0.02334096562117,0.88088158937171,-0.30382564570755,0.46065921010450,-0.58277864707634,0.99824449094012,0.36430451180786,-0.75417972868308,0.95583754964173,0.04124640207738,0.83922631945461,-0.25973034417257,0.43131820065901,-0.42266583675519,-0.62669664667919,-0.50450717331842,-0.55485658906400,0.55179556785151,-0.90480769705027,-0.06056195683777,-0.44832140766084,
-0.26552019738507,0.26268965028949,-0.26252700777715,1.23793909658935,1.23399356291753,0.58578693772608,-1.16961137494433,1.06558719922037,0.82711104814281,-0.16780983507204,-1.21034051126475,-0.46574261019424,

-0.99620102019981,-0.73431448591873,-0.50019094301388,-0.96863716607913,0.32996689481661,-0.10155574558303,0.96833875169978,-0.40885820798576,-0.26079830108210,0.11098664393649,0.43966872710735,0.51199372671545,-0.17577370349318,0.51974236965179,0.61699626827613,0.82396973017603,0.45987832220271,0.14656770369038,0.76897398987785,0.20768601028249,0.42036712216213,-0.32511911820620,0.27062102966011,0.75594650115818,-0.57558595389128,0.66164098028094,0.13558665616438,0.64787185471505,0.52191589167342,0.58449802827090,0.27809886215255,-0.88707741303369,-0.96851991349831,-0.49923739349470,-0.46213996736333,0.09504708275199,0.76240961346775,0.24098440445960,0.46444709133357,-0.74842470511794,0.41175151336938,-0.33327592397109,
0.16347718844190,0.11049221688882,0.57362709939480,-0.18535575037822,-0.96968180825934,0.97921159956604,-0.80306907324120,0.79101868811995,-0.61118734907359,-0.05946241226047,-0.51698907883838,0.55714480718598,0.78955942159519,0.96349001722410,-0.95534638548270,0.95748703600839,0.34721838682890,0.95730094984174,-0.04529479471967,-0.02334096562117,0.88088158937171,0.37341340677813,-0.19940757332370,-0.58277864707634,0.91415214771405,0.36430451180786,-0.75417972868308,0.95583754964173,0.04124640207738,0.83922631945461,0.75847228942439,0.43131820065901,0.20301018981263,-0.62669664667919,-0.50450717331842,-0.55485658906400,0.55179556785151,-0.90480769705027,-0.06056195683777,-0.44832140766084,
-0.26552019738507,0.26268965028949,-0.26252700777715,1.23793909658935,1.23399356291753,-0.74491501680873,-1.16961137494433,1.06558719922037,0.82711104814281,-0.16780983507204,-1.21034051126475,0.39885301402816,

-0.99620102019981,-0.73431448591873,-0.50019094301388,-0.96863716607913,0.32996689481661,-0.10155574558303,0.96833875169978,-0.40885820798576,-0.26079830108210,0.11098664393649,0.43966872710735,0.51199372671545,-0.17577370349318,0.36648954544216,0.61699626827613,0.82396973017603,0.45987832220271,0.14656770369038,0.76897398987785,0.20768601028249,0.42036712216213,-0.32511911820620,0.27062102966011,0.75594650115818,-0.57558595389128,0.66164098028094,0.88454850204289,0.64787185471505,0.52191589167342,0.58449802827090,0.27809886215255,-0.88707741303369,-0.96851991349831,-0.49923739349470,-0.46213996736333,0.09504708275199,0.76240961346775,0.24098440445960,0.46444709133357,-0.74842470511794,0.41175151336938,-0.33327592397109,
0.16347718844190,0.11049221688882,0.57362709939480,-0.18535575037822,-0.96968180825934,0.97921159956604,-0.80306907324120,0.79101868811995,-0.61118734907359,-0.05946241226047,-0.56945618474856,0.55714480718598,0.78955942159519,0.96349001722410,-0.95534638548270,-0.26736539974809,0.34721838682890,0.95730094984174,-0.04529479471967,-0.02334096562117,0.88088158937171,0.37341340677813,-0.19940757332370,-0.58277864707634,0.99824449094012,0.36430451180786,-0.75417972868308,0.95583754964173,0.04124640207738,0.83922631945461,-0.25973034417257,0.43131820065901,0.20301018981263,-0.62669664667919,-0.50450717331842,-0.03339384635910,0.55179556785151,-0.90480769705027,-0.06056195683777,-0.44832140766084,
-0.26552019738507,0.26268965028949,-0.26252700777715,1.23793909658935,1.23399356291753,-0.74491501680873,-1.16961137494433,1.06558719922037,0.82711104814281,-0.16780983507204,-1.21034051126475,0.39885301402816,

-0.99620102019981,-0.73431448591873,-0.50019094301388,-0.96863716607913,0.32996689481661,-0.10155574558303,0.96833875169978,-0.40885820798576,-0.26079830108210,0.11098664393649,0.43966872710735,0.51199372671545,-0.17577370349318,0.36648954544216,0.61699626827613,0.82396973017603,0.45987832220271,0.14656770369038,0.76897398987785,0.20768601028249,0.42036712216213,-0.32511911820620,0.27062102966011,0.75594650115818,-0.57558595389128,0.66164098028094,0.13558665616438,0.64787185471505,0.52191589167342,0.58449802827090,0.27809886215255,-0.88707741303369,-0.96851991349831,-0.49923739349470,-0.46213996736333,0.09504708275199,0.76240961346775,0.24098440445960,0.46444709133357,-0.74842470511794,0.41175151336938,-0.33327592397109,
0.16347718844190,0.11049221688882,0.57362709939480,-0.18535575037822,-0.96968180825934,0.97921159956604,-0.80306907324120,0.79101868811995,-0.61118734907359,-0.05946241226047,-0.51698907883838,0.55714480718598,0.78955942159519,0.96349001722410,-0.95534638548270,0.95748703600839,0.34721838682890,0.95730094984174,-0.04529479471967,-0.02334096562117,0.88088158937171,0.37341340677813,-0.19940757332370,-0.58277864707634,0.91415214771405,0.36430451180786,-0.75417972868308,0.95583754964173,0.04124640207738,0.83922631945461,0.75847228942439,0.43131820065901,0.20301018981263,-0.62669664667919,-0.50450717331842,-0.55485658906400,0.55179556785151,-0.90480769705027,-0.06056195683777,-0.44832140766084,
-0.26552019738507,0.26268965028949,-0.26252700777715,1.23793909658935,1.23399356291753,-0.74491501680873,-1.16961137494433,1.06558719922037,0.82711104814281,-0.16780983507204,-1.21034051126475,0.39885301402816,

